<?xml version="1.0"?>
<opencv_storage>
<stage17>
  <maxWeakCount>9</maxWeakCount>
  <stageThreshold>-1.0664569139480591e+00</stageThreshold>
  <weakClassifiers>
    <_>
      <internalNodes>
        0 -1 72682 -2.4804964661598206e-02</internalNodes>
      <leafValues>
        5.3398060798645020e-01 -5.5758684873580933e-01</leafValues></_>
    <_>
      <internalNodes>
        0 -1 150163 -5.7462798431515694e-03</internalNodes>
      <leafValues>
        3.3037877082824707e-01 -3.3525070548057556e-01</leafValues></_>
    <_>
      <internalNodes>
        0 -1 37224 -9.7394920885562897e-03</internalNodes>
      <leafValues>
        7.6048791408538818e-01 -1.3163055479526520e-01</leafValues></_>
    <_>
      <internalNodes>
        0 -1 8888 2.8989329934120178e-02</internalNodes>
      <leafValues>
        -1.5026800334453583e-01 6.6098427772521973e-01</leafValues></_>
    <_>
      <internalNodes>
        0 -1 131205 -2.5958372280001640e-03</internalNodes>
      <leafValues>
        8.2547044754028320e-01 -1.3801401853561401e-01</leafValues></_>
    <_>
      <internalNodes>
        0 -1 12238 3.8603294524364173e-04</internalNodes>
      <leafValues>
        2.3025345802307129e-01 -5.2911615371704102e-01</leafValues></_>
    <_>
      <internalNodes>
        0 -1 151292 1.0134343989193439e-02</internalNodes>
      <leafValues>
        -1.4847621321678162e-01 7.2732466459274292e-01</leafValues></_>
    <_>
      <internalNodes>
        0 -1 146572 -4.1695687919855118e-02</internalNodes>
      <leafValues>
        3.7266606092453003e-01 -2.9717707633972168e-01</leafValues></_>
    <_>
      <internalNodes>
        0 -1 71484 -5.4618958383798599e-03</internalNodes>
      <leafValues>
        5.5077552795410156e-01 -2.0393645763397217e-01</leafValues></_></weakClassifiers></stage17>
</opencv_storage>
