<?xml version="1.0"?>
<opencv_storage>
<stage15>
  <maxWeakCount>10</maxWeakCount>
  <stageThreshold>-1.3861296176910400e+00</stageThreshold>
  <weakClassifiers>
    <_>
      <internalNodes>
        0 -1 82377 -3.3045303076505661e-02</internalNodes>
      <leafValues>
        5.6000000238418579e-01 -5.5636364221572876e-01</leafValues></_>
    <_>
      <internalNodes>
        0 -1 37957 -1.8585653975605965e-02</internalNodes>
      <leafValues>
        7.2383755445480347e-01 -2.0590482652187347e-01</leafValues></_>
    <_>
      <internalNodes>
        0 -1 56238 2.8402162715792656e-03</internalNodes>
      <leafValues>
        -2.3041583597660065e-01 5.1995444297790527e-01</leafValues></_>
    <_>
      <internalNodes>
        0 -1 53685 -9.5396628603339195e-03</internalNodes>
      <leafValues>
        6.5978789329528809e-01 -1.8843311071395874e-01</leafValues></_>
    <_>
      <internalNodes>
        0 -1 146336 -3.1237937510013580e-02</internalNodes>
      <leafValues>
        3.9949563145637512e-01 -2.8996652364730835e-01</leafValues></_>
    <_>
      <internalNodes>
        0 -1 71163 -8.9668989181518555e-02</internalNodes>
      <leafValues>
        6.8994176387786865e-01 -1.7028392851352692e-01</leafValues></_>
    <_>
      <internalNodes>
        0 -1 155229 -1.3068357948213816e-03</internalNodes>
      <leafValues>
        -7.0430374145507813e-01 1.9036982953548431e-01</leafValues></_>
    <_>
      <internalNodes>
        0 -1 133294 2.5414330884814262e-03</internalNodes>
      <leafValues>
        -2.0751275122165680e-01 5.5530178546905518e-01</leafValues></_>
    <_>
      <internalNodes>
        0 -1 127878 7.7003478072583675e-03</internalNodes>
      <leafValues>
        -2.3018474876880646e-01 6.4010053873062134e-01</leafValues></_>
    <_>
      <internalNodes>
        0 -1 35901 -4.7750854864716530e-03</internalNodes>
      <leafValues>
        5.2998012304306030e-01 -2.1379607915878296e-01</leafValues></_></weakClassifiers></stage15>
</opencv_storage>
