<?xml version="1.0"?>
<opencv_storage>
<stage5>
  <maxWeakCount>6</maxWeakCount>
  <stageThreshold>-1.0999205112457275e+00</stageThreshold>
  <weakClassifiers>
    <_>
      <internalNodes>
        0 -1 70544 -1.8738068640232086e-02</internalNodes>
      <leafValues>
        4.1899442672729492e-01 -6.9002121686935425e-01</leafValues></_>
    <_>
      <internalNodes>
        0 -1 77030 -2.8340011835098267e-02</internalNodes>
      <leafValues>
        6.6638302803039551e-01 -4.3798387050628662e-01</leafValues></_>
    <_>
      <internalNodes>
        0 -1 39879 -6.0872156172990799e-02</internalNodes>
      <leafValues>
        2.4482204020023346e-01 -9.0615653991699219e-01</leafValues></_>
    <_>
      <internalNodes>
        0 -1 161004 -6.0215890407562256e-02</internalNodes>
      <leafValues>
        -6.7777752876281738e-01 2.8226476907730103e-01</leafValues></_>
    <_>
      <internalNodes>
        0 -1 118408 -4.1699912399053574e-03</internalNodes>
      <leafValues>
        7.8324103355407715e-01 -2.9411384463310242e-01</leafValues></_>
    <_>
      <internalNodes>
        0 -1 106534 -2.9883412644267082e-02</internalNodes>
      <leafValues>
        8.4826123714447021e-01 -2.0488837361335754e-01</leafValues></_></weakClassifiers></stage5>
</opencv_storage>
