<?xml version="1.0"?>
<opencv_storage>
<stage1>
  <maxWeakCount>6</maxWeakCount>
  <stageThreshold>-1.6124615669250488e+00</stageThreshold>
  <weakClassifiers>
    <_>
      <internalNodes>
        0 -1 103396 4.9292203038930893e-02</internalNodes>
      <leafValues>
        -7.0137524604797363e-01 7.5886523723602295e-01</leafValues></_>
    <_>
      <internalNodes>
        0 -1 159965 -9.4094900414347649e-03</internalNodes>
      <leafValues>
        -8.8150596618652344e-01 4.0154087543487549e-01</leafValues></_>
    <_>
      <internalNodes>
        0 -1 72239 -1.2364533543586731e-01</internalNodes>
      <leafValues>
        -8.5811859369277954e-01 3.4645703434944153e-01</leafValues></_>
    <_>
      <internalNodes>
        0 -1 147355 -2.4630967527627945e-02</internalNodes>
      <leafValues>
        7.6333129405975342e-01 -3.9209648966789246e-01</leafValues></_>
    <_>
      <internalNodes>
        0 -1 25098 -1.8261061981320381e-02</internalNodes>
      <leafValues>
        8.1639569997787476e-01 -3.9078086614608765e-01</leafValues></_>
    <_>
      <internalNodes>
        0 -1 4152 4.0918984450399876e-04</internalNodes>
      <leafValues>
        4.5598784089088440e-01 -6.6744565963745117e-01</leafValues></_></weakClassifiers></stage1>
</opencv_storage>
