<?xml version="1.0"?>
<opencv_storage>
<stage8>
  <maxWeakCount>11</maxWeakCount>
  <stageThreshold>-1.4098689556121826e+00</stageThreshold>
  <weakClassifiers>
    <_>
      <internalNodes>
        0 -1 74852 1.1284929513931274e-01</internalNodes>
      <leafValues>
        -6.3333332538604736e-01 3.1764706969261169e-01</leafValues></_>
    <_>
      <internalNodes>
        0 -1 89639 -1.7792176455259323e-02</internalNodes>
      <leafValues>
        6.1961179971694946e-01 -3.3841487765312195e-01</leafValues></_>
    <_>
      <internalNodes>
        0 -1 61005 -6.9135837256908417e-02</internalNodes>
      <leafValues>
        -7.6040142774581909e-01 2.0659773051738739e-01</leafValues></_>
    <_>
      <internalNodes>
        0 -1 119467 -8.7027465924620628e-03</internalNodes>
      <leafValues>
        8.4081894159317017e-01 -1.4732810854911804e-01</leafValues></_>
    <_>
      <internalNodes>
        0 -1 162278 3.8108415901660919e-04</internalNodes>
      <leafValues>
        1.6518197953701019e-01 -9.3437033891677856e-01</leafValues></_>
    <_>
      <internalNodes>
        0 -1 24788 2.6894278824329376e-02</internalNodes>
      <leafValues>
        -2.0008617639541626e-01 8.8534617424011230e-01</leafValues></_>
    <_>
      <internalNodes>
        0 -1 88870 -1.6951790079474449e-02</internalNodes>
      <leafValues>
        4.7421780228614807e-01 -2.4996753036975861e-01</leafValues></_>
    <_>
      <internalNodes>
        0 -1 4985 3.5192328505218029e-04</internalNodes>
      <leafValues>
        1.8982051312923431e-01 -8.6322909593582153e-01</leafValues></_>
    <_>
      <internalNodes>
        0 -1 121992 1.2708742171525955e-02</internalNodes>
      <leafValues>
        -3.6934164166450500e-01 3.8899129629135132e-01</leafValues></_>
    <_>
      <internalNodes>
        0 -1 147733 6.9721229374408722e-03</internalNodes>
      <leafValues>
        -1.9752803444862366e-01 6.8619281053543091e-01</leafValues></_>
    <_>
      <internalNodes>
        0 -1 21559 -2.2416867432184517e-04</internalNodes>
      <leafValues>
        -8.2402545213699341e-01 1.8054926395416260e-01</leafValues></_></weakClassifiers></stage8>
</opencv_storage>
