<?xml version="1.0"?>
<opencv_storage>
<stage11>
  <maxWeakCount>8</maxWeakCount>
  <stageThreshold>-1.1481497287750244e+00</stageThreshold>
  <weakClassifiers>
    <_>
      <internalNodes>
        0 -1 98023 -6.8116098642349243e-02</internalNodes>
      <leafValues>
        7.3809522390365601e-01 -5.5123674869537354e-01</leafValues></_>
    <_>
      <internalNodes>
        0 -1 8808 -8.7310610979329795e-05</internalNodes>
      <leafValues>
        -7.0851278305053711e-01 2.3120209574699402e-01</leafValues></_>
    <_>
      <internalNodes>
        0 -1 11923 -1.3924290426075459e-02</internalNodes>
      <leafValues>
        7.6998704671859741e-01 -2.3367974162101746e-01</leafValues></_>
    <_>
      <internalNodes>
        0 -1 162177 2.5467504747211933e-03</internalNodes>
      <leafValues>
        1.9083142280578613e-01 -9.0257394313812256e-01</leafValues></_>
    <_>
      <internalNodes>
        0 -1 25884 4.6333853970281780e-04</internalNodes>
      <leafValues>
        2.6522067189216614e-01 -5.3943055868148804e-01</leafValues></_>
    <_>
      <internalNodes>
        0 -1 133841 1.6736609395593405e-03</internalNodes>
      <leafValues>
        1.9518457353115082e-01 -7.5940042734146118e-01</leafValues></_>
    <_>
      <internalNodes>
        0 -1 133836 -6.8200036184862256e-04</internalNodes>
      <leafValues>
        -7.1558248996734619e-01 2.0750597119331360e-01</leafValues></_>
    <_>
      <internalNodes>
        0 -1 94400 -1.3420527800917625e-02</internalNodes>
      <leafValues>
        4.3769502639770508e-01 -3.5977265238761902e-01</leafValues></_></weakClassifiers></stage11>
</opencv_storage>
