<?xml version="1.0"?>
<opencv_storage>
<stage4>
  <maxWeakCount>7</maxWeakCount>
  <stageThreshold>-1.1117870807647705e+00</stageThreshold>
  <weakClassifiers>
    <_>
      <internalNodes>
        0 -1 87418 -7.5203068554401398e-03</internalNodes>
      <leafValues>
        8.6516851186752319e-01 -5.8288770914077759e-01</leafValues></_>
    <_>
      <internalNodes>
        0 -1 126434 -9.9740866571664810e-03</internalNodes>
      <leafValues>
        8.5553395748138428e-01 -3.4651067852973938e-01</leafValues></_>
    <_>
      <internalNodes>
        0 -1 60342 -9.2462599277496338e-03</internalNodes>
      <leafValues>
        7.8699702024459839e-01 -2.3818650841712952e-01</leafValues></_>
    <_>
      <internalNodes>
        0 -1 133294 4.4954037293791771e-03</internalNodes>
      <leafValues>
        -2.6308208703994751e-01 8.4198236465454102e-01</leafValues></_>
    <_>
      <internalNodes>
        0 -1 147268 -1.3307027984410524e-03</internalNodes>
      <leafValues>
        8.1258887052536011e-01 -1.9842593371868134e-01</leafValues></_>
    <_>
      <internalNodes>
        0 -1 8629 -1.7443469166755676e-01</internalNodes>
      <leafValues>
        -1. 2.4256199598312378e-01</leafValues></_>
    <_>
      <internalNodes>
        0 -1 35239 1.1807617545127869e-01</internalNodes>
      <leafValues>
        2.9881161451339722e-01 -9.2730075120925903e-01</leafValues></_></weakClassifiers></stage4>
</opencv_storage>
