<?xml version="1.0"?>
<opencv_storage>
<stage14>
  <maxWeakCount>9</maxWeakCount>
  <stageThreshold>-1.5795677900314331e+00</stageThreshold>
  <weakClassifiers>
    <_>
      <internalNodes>
        0 -1 142914 -1.9086834043264389e-02</internalNodes>
      <leafValues>
        3.1125828623771667e-01 -5.9519040584564209e-01</leafValues></_>
    <_>
      <internalNodes>
        0 -1 89127 -1.4654617756605148e-02</internalNodes>
      <leafValues>
        -7.6635509729385376e-01 1.1141785234212875e-01</leafValues></_>
    <_>
      <internalNodes>
        0 -1 161622 -2.9556336812674999e-03</internalNodes>
      <leafValues>
        4.1069895029067993e-01 -3.0041548609733582e-01</leafValues></_>
    <_>
      <internalNodes>
        0 -1 12424 -1.0779385920614004e-03</internalNodes>
      <leafValues>
        -5.3349316120147705e-01 2.9570367932319641e-01</leafValues></_>
    <_>
      <internalNodes>
        0 -1 135643 2.8430765494704247e-02</internalNodes>
      <leafValues>
        -2.1779482066631317e-01 7.0250111818313599e-01</leafValues></_>
    <_>
      <internalNodes>
        0 -1 43 6.8519329652190208e-03</internalNodes>
      <leafValues>
        -1.7048715054988861e-01 6.6433829069137573e-01</leafValues></_>
    <_>
      <internalNodes>
        0 -1 162278 -7.1233225753530860e-05</internalNodes>
      <leafValues>
        -4.6188178658485413e-01 2.8300082683563232e-01</leafValues></_>
    <_>
      <internalNodes>
        0 -1 37469 -8.6768837645649910e-03</internalNodes>
      <leafValues>
        7.1684378385543823e-01 -1.8272939324378967e-01</leafValues></_>
    <_>
      <internalNodes>
        0 -1 87094 1.3194888830184937e-02</internalNodes>
      <leafValues>
        -1.3544215261936188e-01 8.2454103231430054e-01</leafValues></_></weakClassifiers></stage14>
</opencv_storage>
