<?xml version="1.0"?>
<opencv_storage>
<stage10>
  <maxWeakCount>8</maxWeakCount>
  <stageThreshold>-1.0581917762756348e+00</stageThreshold>
  <weakClassifiers>
    <_>
      <internalNodes>
        0 -1 85567 7.3781780898571014e-02</internalNodes>
      <leafValues>
        -6.7073172330856323e-01 5.0632911920547485e-01</leafValues></_>
    <_>
      <internalNodes>
        0 -1 106880 -3.5878387279808521e-04</internalNodes>
      <leafValues>
        -6.8694955110549927e-01 1.6201651096343994e-01</leafValues></_>
    <_>
      <internalNodes>
        0 -1 133756 -1.6356966807506979e-04</internalNodes>
      <leafValues>
        -7.7924799919128418e-01 1.8137268722057343e-01</leafValues></_>
    <_>
      <internalNodes>
        0 -1 133756 1.9361200975254178e-04</internalNodes>
      <leafValues>
        2.5738805532455444e-01 -6.5271174907684326e-01</leafValues></_>
    <_>
      <internalNodes>
        0 -1 69633 -2.0109092816710472e-02</internalNodes>
      <leafValues>
        -8.9823389053344727e-01 1.5266351401805878e-01</leafValues></_>
    <_>
      <internalNodes>
        0 -1 95870 -3.1759895384311676e-02</internalNodes>
      <leafValues>
        6.4881724119186401e-01 -2.8299862146377563e-01</leafValues></_>
    <_>
      <internalNodes>
        0 -1 18952 4.1218020021915436e-02</internalNodes>
      <leafValues>
        -1.7899020016193390e-01 8.9061081409454346e-01</leafValues></_>
    <_>
      <internalNodes>
        0 -1 25884 -3.3501232974231243e-04</internalNodes>
      <leafValues>
        -6.7891192436218262e-01 3.0888599157333374e-01</leafValues></_></weakClassifiers></stage10>
</opencv_storage>
