<?xml version="1.0"?>
<opencv_storage>
<stage6>
  <maxWeakCount>5</maxWeakCount>
  <stageThreshold>-8.7642312049865723e-01</stageThreshold>
  <weakClassifiers>
    <_>
      <internalNodes>
        0 -1 13675 -6.2077574431896210e-02</internalNodes>
      <leafValues>
        5.0364965200424194e-01 -6.2183237075805664e-01</leafValues></_>
    <_>
      <internalNodes>
        0 -1 92 -4.9940135329961777e-02</internalNodes>
      <leafValues>
        -7.2391265630722046e-01 2.0806725323200226e-01</leafValues></_>
    <_>
      <internalNodes>
        0 -1 161746 3.7122413050383329e-04</internalNodes>
      <leafValues>
        1.9018892943859100e-01 -8.3166033029556274e-01</leafValues></_>
    <_>
      <internalNodes>
        0 -1 162290 -8.7745336350053549e-04</internalNodes>
      <leafValues>
        -8.2663261890411377e-01 1.8908822536468506e-01</leafValues></_>
    <_>
      <internalNodes>
        0 -1 25606 2.3149474873207510e-04</internalNodes>
      <leafValues>
        1.7991413176059723e-01 -7.7117753028869629e-01</leafValues></_></weakClassifiers></stage6>
</opencv_storage>
