<?xml version="1.0"?>
<opencv_storage>
<stage9>
  <maxWeakCount>9</maxWeakCount>
  <stageThreshold>-1.3818398714065552e+00</stageThreshold>
  <weakClassifiers>
    <_>
      <internalNodes>
        0 -1 6101 -9.0776436030864716e-02</internalNodes>
      <leafValues>
        7.0588237047195435e-01 -5.8759123086929321e-01</leafValues></_>
    <_>
      <internalNodes>
        0 -1 103773 -1.3959527015686035e-01</internalNodes>
      <leafValues>
        4.8205795884132385e-01 -3.6346700787544250e-01</leafValues></_>
    <_>
      <internalNodes>
        0 -1 11589 -2.6959523558616638e-02</internalNodes>
      <leafValues>
        6.5057921409606934e-01 -2.8792876005172729e-01</leafValues></_>
    <_>
      <internalNodes>
        0 -1 146994 -4.7712594270706177e-02</internalNodes>
      <leafValues>
        5.8418184518814087e-01 -2.5552207231521606e-01</leafValues></_>
    <_>
      <internalNodes>
        0 -1 89479 -9.1449646279215813e-03</internalNodes>
      <leafValues>
        5.4307228326797485e-01 -2.4951359629631042e-01</leafValues></_>
    <_>
      <internalNodes>
        0 -1 106215 -4.9657501280307770e-02</internalNodes>
      <leafValues>
        7.8912878036499023e-01 -1.6354767978191376e-01</leafValues></_>
    <_>
      <internalNodes>
        0 -1 81489 -5.5390525609254837e-02</internalNodes>
      <leafValues>
        2.2825533151626587e-01 -7.0406752824783325e-01</leafValues></_>
    <_>
      <internalNodes>
        0 -1 12810 1.2636815663427114e-03</internalNodes>
      <leafValues>
        1.7477878928184509e-01 -8.8035851716995239e-01</leafValues></_>
    <_>
      <internalNodes>
        0 -1 160072 3.6827247822657228e-04</internalNodes>
      <leafValues>
        1.2269633263349533e-01 -8.0930745601654053e-01</leafValues></_></weakClassifiers></stage9>
</opencv_storage>
