<?xml version="1.0"?>
<opencv_storage>
<stage0>
  <maxWeakCount>7</maxWeakCount>
  <stageThreshold>-8.3704388141632080e-01</stageThreshold>
  <weakClassifiers>
    <_>
      <internalNodes>
        0 -1 103396 4.1769590228796005e-02</internalNodes>
      <leafValues>
        -7.3228347301483154e-01 8.5915493965148926e-01</leafValues></_>
    <_>
      <internalNodes>
        0 -1 136606 -7.4944254010915756e-03</internalNodes>
      <leafValues>
        9.0002101659774780e-01 -4.0727826952934265e-01</leafValues></_>
    <_>
      <internalNodes>
        0 -1 22889 3.6681782454252243e-02</internalNodes>
      <leafValues>
        -3.5864889621734619e-01 9.2794501781463623e-01</leafValues></_>
    <_>
      <internalNodes>
        0 -1 6644 1.1603799462318420e-01</internalNodes>
      <leafValues>
        4.8028159141540527e-01 -7.7795940637588501e-01</leafValues></_>
    <_>
      <internalNodes>
        0 -1 75159 2.1351338364183903e-03</internalNodes>
      <leafValues>
        -4.0753304958343506e-01 8.9595663547515869e-01</leafValues></_>
    <_>
      <internalNodes>
        0 -1 36935 -9.2174648307263851e-04</internalNodes>
      <leafValues>
        9.1234225034713745e-01 -2.9193440079689026e-01</leafValues></_>
    <_>
      <internalNodes>
        0 -1 7581 -1.1205948889255524e-02</internalNodes>
      <leafValues>
        8.8035261631011963e-01 -2.9093441367149353e-01</leafValues></_></weakClassifiers></stage0>
</opencv_storage>
